/*!
 * The following copyright notice may not be removed under any circumstances.
 * 
 * Copyright:
 * Copyright (C) 2004-2008 dot colon. All rights reserved.
 * 
 * Full name:
 * Vegur-Regular
 * 
 * Designer:
 * arro
 */
Cufon.registerFont({"w":571,"face":{"font-family":"Vegur","font-weight":400,"font-stretch":"normal","units-per-em":"1000","panose-1":"0 0 0 0 0 0 0 0 0 0","ascent":"750","descent":"-250","x-height":"10","bbox":"-19 -750 861 250","underline-thickness":"50","underline-position":"-50","unicode-range":"U+0020-U+201D"},"glyphs":{" ":{"w":222},"b":{"d":"313,-494v130,0,216,102,216,248v0,144,-86,256,-216,256v-63,0,-118,-27,-156,-80r-2,0r-3,70r-77,0r0,-700r80,0r0,286r2,0v38,-53,93,-80,156,-80xm295,-54v96,0,144,-83,144,-188v0,-101,-48,-188,-144,-188v-76,0,-140,57,-140,141r0,94v0,84,64,141,140,141"},"c":{"d":"293,10v-149,0,-251,-97,-251,-248v0,-155,99,-256,251,-256v46,0,88,7,122,20r-8,64v-37,-12,-69,-20,-110,-20v-103,0,-165,68,-165,188v0,120,66,188,165,188v37,0,66,-6,106,-17r8,64v-38,12,-72,17,-118,17","w":448},"d":{"d":"416,-700r80,0r0,700r-77,0r-3,-70r-2,0v-38,53,-93,80,-156,80v-130,0,-216,-102,-216,-248v0,-144,86,-256,216,-256v63,0,118,27,156,80r2,0r0,-286xm416,-195r0,-94v0,-84,-64,-141,-140,-141v-97,0,-144,83,-144,188v0,101,47,188,144,188v76,0,140,-57,140,-141"},"h":{"d":"155,-414r2,0v37,-47,90,-80,167,-80v101,0,160,68,160,186r0,308r-80,0r0,-289v0,-93,-29,-141,-107,-141v-71,0,-142,55,-142,141r0,289r-80,0r0,-700r80,0r0,286","w":547},"i":{"d":"75,0r0,-484r80,0r0,484r-80,0xm115,-572v-28,0,-50,-22,-50,-50v0,-28,22,-50,50,-50v28,0,50,22,50,50v0,28,-22,50,-50,50","w":230},"l":{"d":"155,0r-80,0r0,-700r80,0r0,700","w":230},"m":{"d":"597,-494v101,0,151,75,151,182r0,312r-80,0r0,-303v0,-87,-28,-127,-94,-127v-73,0,-124,69,-124,164r0,266r-80,0r0,-303v0,-68,-22,-127,-95,-127v-78,0,-120,70,-120,165r0,265r-80,0r0,-484r77,0r3,70r2,0v36,-51,80,-80,142,-80v66,0,109,37,134,98r2,0v33,-58,83,-98,162,-98","w":811},"n":{"d":"155,-414r2,0v37,-47,90,-80,167,-80v101,0,160,68,160,186r0,308r-80,0r0,-289v0,-93,-29,-141,-107,-141v-71,0,-142,55,-142,141r0,289r-80,0r0,-484r77,0","w":547},"p":{"d":"155,216r-80,0r0,-700r77,0r3,70r2,0v38,-53,93,-80,156,-80v130,0,216,102,216,248v0,144,-86,256,-216,256v-63,0,-118,-27,-156,-80r-2,0r0,286xm155,-289r0,94v0,84,64,141,140,141v96,0,144,-83,144,-188v0,-101,-48,-188,-144,-188v-76,0,-140,57,-140,141"},"q":{"d":"258,10v-130,0,-216,-102,-216,-248v0,-144,86,-256,216,-256v63,0,118,27,156,80r2,0r3,-70r77,0r0,700r-80,0r0,-286r-2,0v-38,53,-93,80,-156,80xm276,-430v-97,0,-144,83,-144,188v0,101,47,188,144,188v76,0,140,-57,140,-141r0,-94v0,-84,-64,-141,-140,-141"},"r":{"d":"294,-494r0,74v-103,0,-139,77,-139,187r0,233r-80,0r0,-484r77,0r3,88r2,0v26,-57,72,-98,137,-98","w":306},"u":{"d":"392,-70r-2,0v-37,47,-90,80,-167,80v-101,0,-160,-68,-160,-186r0,-308r80,0r0,289v0,93,28,141,107,141v71,0,142,-55,142,-141r0,-289r80,0r0,484r-77,0","w":542},"Z":{"d":"113,-64r359,0r0,64r-444,0r0,-68r335,-520r0,-2r-300,0r0,-64r385,0r0,68r-335,520r0,2","w":490},"Y":{"d":"418,-654r85,0r-203,359r0,295r-80,0r0,-288r-207,-366r92,0r156,290r2,0","w":513},"X":{"d":"480,-654r-185,316r198,338r-92,0r-152,-275r-2,0r-151,275r-86,0r195,-333r-188,-321r92,0r142,258r2,0r141,-258r86,0","w":506},"W":{"d":"783,-654r78,0r-192,654r-81,0r-92,-327v-15,-50,-40,-140,-59,-224r-2,0v-19,84,-44,174,-58,224r-92,327r-81,0r-192,-654r84,0r92,327v16,57,42,147,59,225r2,0v17,-78,42,-168,58,-225r92,-327r81,0r92,327v16,57,42,147,58,225r3,0v17,-78,42,-168,58,-225","w":871},"V":{"d":"483,-654r78,0r-233,654r-82,0r-233,-654r85,0r114,327v27,75,49,140,78,235r2,0v30,-95,51,-160,77,-235"},"T":{"d":"517,-654r0,64r-212,0r0,590r-80,0r0,-590r-212,0r0,-64r504,0","w":530},"S":{"d":"41,-496v0,-98,77,-168,200,-168v50,0,82,8,121,24r-8,64v-43,-16,-76,-24,-120,-24v-66,0,-105,39,-105,90v0,52,28,88,117,139v108,63,157,114,157,194v0,116,-97,187,-219,187v-47,0,-96,-7,-141,-23r8,-64v53,17,92,23,134,23v78,0,130,-45,130,-109v0,-50,-23,-89,-109,-139v-111,-65,-165,-126,-165,-194","w":439},"U":{"d":"530,-233v0,157,-104,243,-236,243v-132,0,-236,-87,-236,-224r0,-440r80,0r0,430v0,111,61,170,156,170v102,0,160,-60,160,-170r0,-430r76,0r0,421","w":585},"R":{"d":"150,-595r0,247v29,2,59,3,88,3v88,0,145,-55,145,-136v0,-76,-46,-119,-140,-119v-37,0,-63,2,-93,5xm70,0r0,-654v66,-6,124,-10,178,-10v140,0,225,74,225,170v0,74,-58,137,-122,164r0,2v47,24,66,44,90,136v18,71,37,130,59,192r-92,0v-18,-60,-35,-127,-51,-192v-16,-66,-43,-95,-114,-95v-26,0,-57,1,-93,3r0,284r-80,0","w":518},"P":{"d":"150,-595r0,253v28,5,56,7,89,7v74,0,139,-43,139,-140v0,-78,-52,-125,-140,-125v-32,0,-61,2,-88,5xm70,0r0,-654v70,-7,114,-10,169,-10v151,0,229,81,229,182v0,126,-108,211,-230,211v-29,0,-60,-4,-88,-8r0,279r-80,0","w":484},"Q":{"d":"674,-327v0,129,-58,232,-147,289r64,143r-88,0r-48,-110v-227,64,-418,-89,-417,-322v0,-200,138,-337,318,-337v180,0,318,137,318,337xm356,-54v134,0,228,-103,228,-273v0,-170,-94,-273,-228,-273v-134,0,-228,103,-228,273v0,170,94,273,228,273","w":712},"O":{"d":"356,-664v180,0,318,137,318,337v0,200,-138,337,-318,337v-180,0,-318,-137,-318,-337v0,-200,138,-337,318,-337xm356,-54v134,0,228,-103,228,-273v0,-170,-94,-273,-228,-273v-134,0,-228,103,-228,273v0,170,94,273,228,273","w":712},"N":{"d":"585,-654r0,654r-108,0r-211,-354v-30,-50,-72,-120,-124,-219r-2,0v3,99,3,169,3,219r0,354r-76,0r0,-654r108,0r211,354v30,50,72,120,124,219r2,0v-3,-99,-3,-169,-3,-219r0,-354r76,0","w":652},"M":{"d":"713,-654r5,654r-80,0r-3,-392v0,-60,-1,-92,2,-163r-2,0v-24,71,-37,103,-61,163r-146,367r-83,0r-144,-367v-23,-60,-36,-92,-58,-159r-2,0v3,67,2,99,2,159r-3,392r-76,0r5,-654r109,0r128,327v28,70,51,130,83,221r2,0v32,-91,56,-151,84,-221r130,-327r108,0","w":785},"L":{"d":"150,-64r319,0r0,64r-399,0r0,-654r80,0r0,590","w":487},"K":{"d":"509,-654r-254,297r283,357r-102,0r-233,-299r-2,0r-51,60r0,239r-80,0r0,-654r80,0r0,324r2,0v36,-50,82,-108,120,-154r139,-170r98,0","w":542},"J":{"d":"343,-242v0,164,-80,252,-218,252v-36,0,-68,-3,-102,-10r8,-64v29,7,60,10,87,10v97,0,145,-61,145,-189r0,-411r80,0r0,412","w":401},"I":{"d":"140,0r-80,0r0,-654r80,0r0,654","w":200},"H":{"d":"493,-654r80,0r0,654r-80,0r0,-309r-343,0r0,309r-80,0r0,-654r80,0r0,281r343,0r0,-281","w":643},"G":{"d":"492,-72r0,-203r-136,0r0,-64r216,0r0,317v-66,22,-137,32,-207,32v-191,0,-327,-117,-327,-334v0,-211,138,-340,352,-340v67,0,119,8,165,23r-8,64v-54,-15,-108,-23,-163,-23v-166,0,-256,106,-256,273v0,197,103,273,242,273v46,0,85,-6,122,-18","w":642},"F":{"d":"150,0r-80,0r0,-654r353,0r0,64r-273,0r0,227r231,0r0,64r-231,0r0,299","w":428},"E":{"d":"150,-64r275,0r0,64r-355,0r0,-654r346,0r0,64r-266,0r0,220r232,0r0,64r-232,0r0,242","w":450},"D":{"d":"70,-654v54,-7,100,-10,169,-10v222,0,360,126,360,322v0,211,-166,352,-360,352v-68,0,-125,-4,-169,-10r0,-654xm150,-594r0,534v25,3,59,6,89,6v154,0,270,-109,270,-283v0,-150,-84,-263,-269,-263v-26,0,-59,2,-90,6","w":637},"C":{"d":"38,-325v0,-216,140,-339,323,-339v56,0,113,7,162,23r-8,64v-48,-15,-98,-23,-144,-23v-149,0,-243,103,-243,273v0,177,94,273,243,273v46,0,96,-8,144,-23r8,64v-49,16,-106,23,-162,23v-183,0,-323,-119,-323,-335","w":545},"B":{"d":"363,-347v73,27,131,74,131,151v0,126,-113,206,-251,206v-59,0,-117,-4,-173,-10r0,-654v64,-6,128,-10,187,-10v128,0,214,69,214,161v0,72,-49,123,-108,154r0,2xm150,-594r0,228v33,2,67,3,103,3v73,0,128,-45,128,-126v0,-73,-50,-111,-143,-111v-31,0,-59,2,-88,6xm252,-54v89,0,152,-49,152,-133v0,-75,-54,-118,-147,-118v-38,0,-79,0,-107,3r0,242v34,4,67,6,102,6","w":532},"A":{"d":"472,0r-72,-208r-240,0r-72,208r-78,0r233,-654r81,0r233,654r-85,0xm183,-272r195,0r-20,-55v-26,-75,-48,-140,-77,-235r-2,0v-30,95,-51,160,-77,235","w":570},"\u201d":{"d":"97,-657v8,-32,54,-27,94,-27v-25,77,-63,172,-92,236r-71,13v21,-62,54,-165,69,-222xm252,-657v8,-32,54,-27,94,-27v-25,77,-63,172,-92,236r-71,13v21,-62,54,-165,69,-222","w":377},"\u201c":{"d":"280,-462v-5,16,-21,27,-41,27r-53,0v25,-76,63,-172,92,-236r71,-13v-21,62,-53,165,-69,222xm125,-462v-5,16,-21,27,-41,27r-53,0v25,-76,63,-172,92,-236r71,-13v-21,62,-53,165,-69,222","w":377},"\u2019":{"d":"97,-657v8,-32,54,-27,94,-27v-25,77,-63,172,-92,236r-71,13v21,-62,54,-165,69,-222","w":222},"\u2018":{"d":"125,-462v-5,16,-21,27,-41,27r-53,0v25,-76,63,-172,92,-236r71,-13v-21,62,-53,165,-69,222","w":222},"\"":{"d":"115,-441r-54,0r-10,-223v-3,-30,60,-17,91,-20xm265,-441r-54,0r-10,-223v-3,-30,60,-17,91,-20","w":339},"!":{"d":"161,-45v0,30,-25,55,-55,55v-30,0,-55,-25,-55,-55v0,-30,25,-55,55,-55v30,0,55,25,55,55xm142,-182r-72,0r-6,-472r84,0","w":212},"@":{"d":"488,-588v170,0,287,133,287,273v0,163,-90,265,-195,265v-49,0,-93,-25,-99,-85r-2,0v-39,66,-87,92,-143,92v-61,0,-116,-55,-116,-123v0,-153,104,-265,263,-265v44,0,78,10,110,24r-48,205v-16,71,1,106,51,106v56,0,116,-89,116,-199v0,-134,-84,-247,-240,-247v-179,0,-361,142,-361,345v0,168,109,271,252,271v74,0,133,-19,198,-52r4,46v-65,36,-126,52,-210,52v-174,0,-307,-117,-307,-305v0,-250,207,-403,440,-403xm491,-266r23,-100v-16,-6,-30,-9,-52,-9v-86,0,-168,76,-168,199v0,51,26,77,62,77v67,0,114,-76,135,-167","w":813},"`":{"d":"31,-684v32,3,77,-9,89,15v19,38,61,105,84,139r-72,5v-25,-34,-68,-100,-101,-159","w":232},"#":{"d":"453,-367r-95,0r-22,106r95,0r0,42r-103,0r-41,199r-50,0r41,-199r-100,0r-41,199r-50,0r41,-199r-87,0r0,-42r95,0r22,-106r-95,0r0,-42r103,0r41,-199r50,0r-41,199r100,0r41,-199r50,0r-41,199r87,0r0,42xm286,-261r22,-106r-100,0r-22,106r100,0","w":494},"$":{"d":"400,-185v0,88,-60,148,-153,162r0,98r-56,0r0,-95v-44,-1,-85,-10,-126,-25r8,-64v56,19,92,25,134,25v72,0,108,-37,108,-89v0,-45,-13,-71,-97,-120v-113,-66,-150,-111,-150,-177v0,-72,52,-121,130,-134r0,-99r56,0r0,95v43,2,79,12,110,26r-8,64v-38,-16,-74,-26,-118,-26v-48,0,-85,25,-85,64v0,52,14,67,104,120v108,63,143,106,143,175","w":468},"%":{"d":"595,-330v94,0,154,79,154,170v0,91,-60,170,-154,170v-94,0,-154,-79,-154,-170v0,-91,60,-170,154,-170xm595,-46v51,0,80,-49,80,-114v0,-65,-29,-114,-80,-114v-51,0,-80,49,-80,114v0,65,29,114,80,114xm187,-638v94,0,154,79,154,170v0,91,-60,170,-154,170v-94,0,-154,-79,-154,-170v0,-91,60,-170,154,-170xm187,-354v51,0,80,-49,80,-114v0,-65,-29,-114,-80,-114v-51,0,-80,49,-80,114v0,65,29,114,80,114xm582,-648r58,0r-440,668r-58,0","w":782},"&":{"d":"612,0r-105,0r-51,-63r-2,0v-52,46,-117,73,-200,73v-107,0,-216,-63,-216,-181v0,-86,53,-140,157,-205r0,-2v-30,-29,-81,-92,-81,-150v0,-83,71,-136,152,-136v90,0,152,52,152,122v0,66,-43,124,-118,173r0,2r159,189r2,0v22,-39,35,-93,37,-158r78,0v-4,86,-32,156,-71,213xm265,-600v-39,0,-63,25,-63,67v0,39,25,77,55,114r2,0v53,-34,74,-72,74,-113v0,-43,-26,-68,-68,-68xm261,-54v52,0,108,-22,149,-62r0,-2r-175,-210r-2,0v-82,50,-107,95,-107,151v0,77,58,123,135,123","w":620},"'":{"d":"115,-441r-54,0r-10,-223v-3,-30,60,-17,91,-20","w":189},"(":{"d":"239,-688v-131,244,-132,538,0,782r-56,0v-65,-112,-117,-246,-117,-391v0,-145,52,-279,117,-391r56,0","w":258},")":{"d":"19,94v131,-244,132,-538,0,-782r56,0v65,112,117,246,117,391v0,145,-52,279,-117,391r-56,0","w":258},"+":{"d":"328,-284r212,0r0,56r-212,0r0,228r-70,0r0,-228r-212,0r0,-56r212,0r0,-228r70,0r0,228","w":586},"*":{"d":"214,-435r-2,0r-77,127r-56,-41r98,-112r0,-2r-146,-33r22,-67r139,59r-14,-150r70,0r-14,150r139,-59r22,67r-146,33r0,2r98,112r-57,41","w":426},",":{"d":"80,-57v8,-32,54,-27,94,-27v-25,77,-63,172,-92,236r-71,13v21,-62,54,-165,69,-222","w":207},".":{"d":"105,-100v30,0,55,25,55,55v0,30,-25,55,-55,55v-30,0,-55,-25,-55,-55v0,-30,25,-55,55,-55","w":198},"-":{"d":"271,-284r0,56r-235,0r0,-56r235,0","w":307},"\/":{"d":"299,-680r73,0r-304,717r-73,0","w":367},"0":{"d":"275,-638v151,0,232,132,232,324v0,192,-81,324,-232,324v-151,0,-232,-132,-232,-324v0,-192,81,-324,232,-324xm275,-54v93,0,142,-95,142,-260v0,-165,-49,-260,-142,-260v-93,0,-142,95,-142,260v0,165,49,260,142,260","w":550},"1":{"d":"289,-628r40,0r0,628r-80,0r0,-526r-99,37r-8,-64","w":467},"2":{"d":"422,-64r0,64r-395,0r0,-53r124,-147v154,-178,171,-214,171,-277v0,-68,-42,-97,-121,-97v-45,0,-85,12,-126,35r-8,-64v50,-26,100,-35,153,-35v118,0,192,60,192,150v0,81,-37,140,-208,338r-74,84r0,2r292,0","w":467},"3":{"d":"177,10v-47,0,-105,-9,-144,-28r8,-64v46,20,95,28,145,28v73,0,129,-46,129,-114v0,-82,-57,-125,-165,-132r0,-64v85,-6,145,-53,145,-119v0,-60,-39,-91,-109,-91v-39,0,-88,12,-129,33r-6,-64v38,-19,88,-33,159,-33v101,0,173,59,173,141v0,77,-57,121,-129,148r0,2v97,32,149,90,149,169v0,111,-98,188,-226,188","w":450},"4":{"d":"404,-224r78,0r0,64r-78,0r0,160r-80,0r0,-160r-298,0r0,-62r293,-406r85,0r0,404xm117,-224r207,0r0,-166v0,-40,1,-92,3,-141r-2,0v-62,118,-135,203,-208,305r0,2","w":503},"5":{"d":"209,-399v128,0,211,77,211,190v0,130,-100,219,-243,219v-58,0,-107,-11,-145,-29r8,-64v51,21,96,29,146,29v87,0,146,-56,146,-145v0,-83,-43,-136,-132,-136v-28,0,-64,8,-84,18r-61,-6r15,-305r301,0r0,64r-230,0r-8,176v22,-5,54,-12,76,-11","w":465},"7":{"d":"413,-628r0,56r-258,572r-81,0r255,-564r-308,0r0,-64r392,0","w":436},"8":{"d":"322,-339v95,53,132,103,132,169v0,120,-112,180,-207,180v-95,0,-207,-50,-207,-167v0,-75,48,-131,137,-170r0,-2v-72,-38,-112,-82,-112,-154v0,-77,75,-155,185,-155v110,0,185,71,185,148v0,65,-39,108,-113,149r0,2xm153,-485v0,48,25,79,99,119v74,-28,95,-67,95,-115v0,-57,-34,-93,-97,-93v-63,0,-97,40,-97,89xm247,-54v74,0,119,-44,119,-108v0,-60,-32,-102,-122,-144v-92,36,-116,85,-116,139v0,64,45,113,119,113","w":494},"6":{"d":"251,10v-130,0,-208,-113,-208,-277v0,-229,166,-366,340,-371r8,64v-142,7,-258,122,-264,250r2,0v34,-39,83,-61,137,-61v114,0,195,87,195,185v0,118,-91,210,-210,210xm251,-321v-67,0,-122,40,-122,99v0,100,50,168,130,168v72,0,114,-58,114,-134v0,-92,-54,-133,-122,-133","w":493},"9":{"d":"242,-638v130,0,208,113,208,277v0,229,-166,366,-340,371r-8,-64v142,-7,258,-122,264,-250r-2,0v-35,39,-83,61,-137,61v-114,0,-195,-87,-195,-185v0,-118,91,-210,210,-210xm242,-307v67,0,122,-40,122,-99v0,-100,-50,-168,-130,-168v-72,0,-114,58,-114,134v0,92,54,133,122,133","w":493},":":{"d":"105,-384v-30,0,-55,-25,-55,-55v0,-30,25,-55,55,-55v30,0,55,25,55,55v0,30,-25,55,-55,55xm105,-100v30,0,55,25,55,55v0,30,-25,55,-55,55v-30,0,-55,-25,-55,-55v0,-30,25,-55,55,-55","w":198},";":{"d":"129,-384v-30,0,-55,-25,-55,-55v0,-30,25,-55,55,-55v30,0,55,25,55,55v0,30,-25,55,-55,55xm80,-57v8,-32,54,-27,94,-27v-25,77,-63,172,-92,236r-71,13v21,-62,54,-165,69,-222","w":217},"<":{"d":"110,-254r302,162r0,78r-370,-201r0,-77r370,-201r0,76r-302,161r0,2","w":459},">":{"d":"349,-253r-302,-162r0,-78r370,201r0,77r-370,201r0,-76r302,-161r0,-2","w":459},"=":{"d":"544,-334r-492,0r0,-56r492,0r0,56xm544,-122r-492,0r0,-56r492,0r0,56","w":596},"?":{"d":"196,-45v0,-30,-25,-55,-55,-55v-30,0,-55,25,-55,55v0,30,25,55,55,55v30,0,55,-25,55,-55xm328,-527v0,53,-28,104,-77,162v-67,79,-72,96,-70,183r-80,0v-3,-98,19,-142,87,-220v37,-41,55,-75,55,-113v0,-48,-33,-84,-93,-84v-41,0,-80,14,-121,40r-8,-64v41,-26,90,-41,139,-41v101,0,168,57,168,137","w":366},"_":{"d":"492,108r-492,0r0,-56r492,0r0,56","w":492},"^":{"d":"303,-632r183,390r-74,0r-145,-318r-2,0r-144,318r-76,0r183,-390r75,0","w":531},"[":{"d":"250,-624r-100,0r0,655r100,0r0,56r-170,0r0,-767r170,0r0,56","w":274},"{":{"d":"155,-530r14,99v10,72,-17,107,-77,130r0,2v61,23,85,64,75,136r-14,99v-10,75,27,104,116,104r0,56v-129,0,-199,-48,-183,-160r13,-94v12,-85,-8,-104,-70,-111r0,-56v62,-7,82,-26,70,-111r-13,-94v-16,-111,54,-160,183,-160r0,56v-89,0,-124,29,-114,104","w":293},"|":{"d":"150,250r-70,0r0,-1000r70,0r0,1000","w":230},"}":{"d":"137,-64r-13,-99v-10,-72,17,-107,77,-130r0,-2v-61,-23,-85,-64,-75,-136r13,-99v11,-75,-26,-104,-115,-104r0,-56v129,0,199,49,183,160r-13,94v-12,85,8,104,70,111r0,56v-62,7,-82,26,-70,111r13,94v16,112,-54,160,-183,160r0,-56v89,0,123,-29,113,-104","w":293},"~":{"d":"276,-225v-90,-37,-115,-46,-137,-46v-28,0,-47,18,-48,67r-56,0v0,-82,45,-131,116,-131v33,0,68,14,151,48v90,37,115,46,137,46v28,0,47,-18,48,-67r56,0v0,82,-45,131,-116,131v-33,0,-68,-13,-151,-48","w":578},"]":{"d":"24,-624r0,-56r170,0r0,767r-170,0r0,-56r100,0r0,-655r-100,0","w":274},"\\":{"d":"70,-680r304,717r-75,0r-304,-717r75,0","w":369},"e":{"d":"273,-494v137,0,209,120,184,261r-331,0v5,114,59,179,163,179v37,0,82,-9,121,-25r8,64v-42,15,-87,25,-133,25v-150,0,-243,-110,-243,-252v0,-135,89,-252,231,-252xm271,-430v-84,0,-128,61,-141,133r248,0v0,-80,-33,-133,-107,-133","w":501},"f":{"d":"110,-484v-8,-136,45,-228,159,-226v30,0,55,3,70,7r-8,64v-19,-4,-36,-7,-60,-7v-68,0,-86,75,-81,162r116,0r0,64r-116,0r0,420r-80,0r0,-420r-84,0r0,-64r84,0","w":325},"g":{"d":"419,-484r77,0r0,454v0,180,-107,256,-243,256v-60,0,-109,-12,-160,-35r8,-64v47,24,90,35,157,35v94,0,158,-59,158,-187r0,-45r-2,0v-38,53,-93,80,-156,80v-130,0,-216,-102,-216,-248v0,-144,86,-256,216,-256v63,0,118,27,156,80r2,0xm416,-195r0,-94v0,-84,-64,-141,-140,-141v-97,0,-144,83,-144,188v0,101,47,188,144,188v76,0,140,-57,140,-141","w":569},"j":{"d":"127,-572v-28,0,-50,-22,-50,-50v0,-28,22,-50,50,-50v28,0,50,22,50,50v0,28,-22,50,-50,50xm87,40r0,-524r80,0r0,512v0,132,-74,198,-178,198r-8,-64v66,0,106,-41,106,-122","w":242},"o":{"d":"279,-494v142,0,237,107,237,252v0,145,-95,252,-237,252v-142,0,-237,-107,-237,-252v0,-145,95,-252,237,-252xm279,-54v95,0,149,-85,149,-188v0,-103,-54,-188,-149,-188v-95,0,-149,85,-149,188v0,103,54,188,149,188","w":558},"t":{"d":"296,-484r0,64r-111,0r0,281v0,59,16,85,55,85v18,0,34,-2,51,-8r8,64v-107,21,-194,6,-194,-113r0,-309r-79,0r0,-64r79,0r0,-120r80,0r0,120r111,0","w":334},"k":{"d":"447,-484r-196,218r223,266r-104,0r-172,-210r-2,0r-41,47r0,163r-80,0r0,-700r80,0r0,445r2,0v53,-75,128,-157,190,-229r100,0","w":476},"s":{"d":"174,-210v-89,-39,-130,-77,-130,-144v0,-79,60,-140,166,-140v38,0,75,9,107,23r-8,64v-34,-17,-68,-23,-109,-23v-47,0,-71,26,-71,62v0,43,21,62,81,89v94,41,130,79,130,144v0,90,-75,145,-177,145v-42,0,-88,-10,-126,-28r8,-64v44,20,79,28,118,28v61,0,92,-26,92,-68v0,-39,-19,-61,-81,-88","w":379},"v":{"d":"385,-484r80,0r-191,484r-89,0r-175,-484r85,0r84,242v19,52,37,107,53,166r2,0v19,-59,39,-114,59,-166","w":473},"w":{"d":"657,-484r78,0r-153,484r-82,0r-79,-242v-15,-45,-30,-100,-46,-164r-2,0v-39,155,-82,265,-127,406r-81,0r-153,-484r84,0r72,242v14,47,29,102,41,160r2,0v36,-148,82,-266,125,-402r81,0r80,242v15,47,32,102,45,160r2,0v33,-147,74,-265,113,-402","w":745},"x":{"d":"448,-484r-165,232r179,252r-98,0r-129,-196r-2,0r-130,196r-90,0r175,-246r-169,-238r98,0r119,182r2,0r120,-182r90,0","w":477},"a":{"d":"244,-494v107,0,173,67,173,168r0,326r-77,0r-3,-70r-2,0v-36,55,-81,80,-145,80v-78,0,-154,-55,-154,-154v0,-106,85,-177,198,-177v36,0,69,5,103,10v1,-72,-27,-119,-103,-119v-46,0,-91,11,-132,33r-8,-64v43,-21,90,-33,150,-33xm337,-195r0,-54v-38,-6,-62,-8,-103,-8v-65,0,-105,43,-105,107v0,59,35,96,86,96v66,0,122,-59,122,-141","w":480},"y":{"d":"274,0v-65,165,-132,221,-241,226r-8,-64v87,-6,121,-44,165,-149r-180,-497r85,0r84,242v19,52,37,107,53,166r2,0v19,-59,39,-114,59,-166r92,-242r80,0","w":473},"z":{"d":"126,-64r268,0r0,64r-357,0r0,-64r251,-354r0,-2r-232,0r0,-64r321,0r0,64r-251,354r0,2","w":438},"\u00a0":{"w":222}}});
